const float weights[2560] = {
	 0.0295684, -0.0005539, -0.1718827, -0.1717755,  0.1802989,  0.1906945, -0.1639761,  0.1857892, -0.1879897, -0.2456668,
	-0.1255443, -0.2722760,  0.0369069,  0.3195484,  0.1029772, -0.1787979, -0.4154918,  0.1375058, -0.1070779, -0.0238048,
	-0.1453205,  0.2956217, -0.0591186, -0.0489870, -0.1583698, -0.1195350,  0.0145307, -0.2112726, -0.0268887,  0.1697361,
	-0.0508229,  0.1401604,  0.1277222,  0.0177876, -0.2574243, -0.3467250,  0.0109271,  0.1138873, -0.0736109, -0.3471965,
	 0.0221042,  0.0762346,  0.0512332,  0.1608552, -0.1451443, -0.1553155, -0.2224701,  0.2711746,  0.0036739, -0.1229668,
	-0.0900280,  0.0166265, -0.1525246, -0.0170794, -0.1245581, -0.1332597,  0.1376811,  0.0806200,  0.0360545, -0.0026113,
	 0.0384793,  0.0505919, -0.0684881, -0.1652388,  0.0866465, -0.0646441, -0.1009161,  0.2294254, -0.2454716, -0.2093381,
	-0.0359146,  0.0224214, -0.0817269, -0.0189018,  0.1553724, -0.2077330,  0.1530898,  0.0730818, -0.0705230,  0.0469039,
	-0.2029956, -0.1399236, -0.0855082, -0.0414434,  0.0772543, -0.1103641, -0.0680946, -0.0199031,  0.1214418, -0.0472361,
	-0.0586217,  0.0774158,  0.0606118, -0.0736685, -0.0513406, -0.0230407, -0.2137804, -0.0531339,  0.1002549, -0.0904754,
	-0.0474240, -0.0793454,  0.0324107,  0.0116037, -0.2369124,  0.0035024, -0.4482577,  0.0385456,  0.0369765, -0.1861065,
	 0.0367721, -0.1004574, -0.0289698, -0.2052479, -0.0569138,  0.0635168,  0.0165919, -0.0177844,  0.1749341,  0.1389381,
	-0.0367921, -0.1242697, -0.0622605, -0.1972639, -0.1397960, -0.0448275,  0.0644227, -0.2114636,  0.2243738,  0.0212106,
	-0.1888551,  0.2581139,  0.1087846,  0.0555901, -0.0392776, -0.0560727,  0.1228819, -0.2745515,  0.0174960, -0.2646346,
	-0.1432721, -0.2616068, -0.0788779,  0.0311451, -0.1056333,  0.0055129, -0.0371533, -0.1430060, -0.0430756,  0.0989530,
	-0.0693584,  0.1698518,  0.0848271,  0.1283343,  0.1375232,  0.0626007,  0.0706439, -0.0095224, -0.1579882, -0.1939874,
	 0.1266733,  0.2349757,  0.1067121,  0.0407796,  0.1925871, -0.0768749, -0.2430913,  0.0912944, -0.0603049, -0.0914007,
	-0.0913784, -0.3215689,  0.1129803,  0.2070920, -0.3756474, -0.1972949, -0.4498273,  0.0520564,  0.1233084,  0.0373287,
	-0.0873049,  0.1196135, -0.0633740, -0.1237558,  0.1652374, -0.1158586,  0.1783750, -0.2980863,  0.0558947,  0.0393489,
	-0.0878145,  0.1220888,  0.1977588,  0.1841498, -0.1697682, -0.3434328, -0.1148830,  0.1356834, -0.2067051, -0.1322289,
	-0.1504483, -0.1208624, -0.0454898,  0.0806526, -0.2845460, -0.1546312, -0.3046204,  0.1155373,  0.0680723,  0.2321847,
	 0.1362643, -0.0821095,  0.0808911, -0.1606607,  0.0793208, -0.1084933, -0.2126049,  0.1899077, -0.0579397, -0.0073298,
	-0.0543971,  0.0193439, -0.0150360,  0.0090803,  0.0423014, -0.0131219, -0.2605390,  0.1466272, -0.1591637, -0.0634350,
	 0.0024169, -0.0641049, -0.1677240,  0.1500853, -0.0025481, -0.3088650,  0.2165637,  0.0445347, -0.1248006, -0.0711675,
	-0.1235044,  0.2081639, -0.0416999, -0.1147787,  0.1686710,  0.0701681, -0.0749884,  0.1580821,  0.0641534, -0.1491008,
	-0.0476009,  0.0020405, -0.0976665,  0.1446169, -0.1658650,  0.0063511,  0.1767878,  0.1074796, -0.0194989, -0.3268569,
	-0.0912106, -0.0178522,  0.0440465,  0.2092880, -0.3879851, -0.0297360, -0.1991377,  0.2184190, -0.0500551,  0.0488174,
	 0.0292045, -0.3081666, -0.1583578, -0.1967377,  0.1455930,  0.2090677, -0.0305494, -0.0232135,  0.1129185,  0.0533322,
	 0.0552614, -0.0381614,  0.0674752,  0.0099763, -0.0889523,  0.0750098,  0.0461493, -0.0480032,  0.0195880,  0.0487722,
	-0.1053492,  0.1119887, -0.1158209,  0.1380346,  0.4060449, -0.1507489,  0.0558647,  0.1970258, -0.1378228, -0.3786074,
	-0.0727846, -0.1401521, -0.1541473, -0.2327531,  0.0586906,  0.2660751,  0.1967858, -0.0735495,  0.0939026, -0.0401511,
	 0.1716265,  0.0097731, -0.0337746, -0.0676059, -0.0247010, -0.1509693, -0.2089502,  0.1005450, -0.1230468,  0.1784961,
	-0.0377979,  0.0768025,  0.0454285, -0.0521306,  0.0924061, -0.1833995, -0.1915761, -0.1647445, -0.0941574, -0.1522766,
	-0.1188093, -0.2798035,  0.1518561,  0.1473507, -0.4200401, -0.1037551, -0.3065638, -0.0181964,  0.2678924,  0.0311077,
	-0.2456095, -0.0135885,  0.2064826, -0.3199143, -0.0337751, -0.0995324,  0.2846161, -0.1436110, -0.2758695, -0.1911018,
	 0.0065945, -0.2267963,  0.0326564, -0.0326824, -0.4368560,  0.2305626,  0.0068973, -0.0564184, -0.1463822, -0.0646603,
	-0.0500491, -0.1498011, -0.0034856,  0.0110997, -0.1429793,  0.2241756, -0.2437155,  0.0316677,  0.1358281,  0.1440611,
	 0.0839847,  0.0590780, -0.2705788, -0.3021663,  0.1251875,  0.1501954,  0.1106801, -0.0605082,  0.0665538, -0.1777041,
	-0.0111006, -0.0827040,  0.0245698, -0.0350324,  0.0959614, -0.0091192, -0.1020896, -0.1479221,  0.0784362,  0.1513607,
	-0.3124987,  0.0134246, -0.1246483,  0.0645420, -0.1255620, -0.1864708, -0.0089107,  0.2836560, -0.0832406,  0.0455332,
	 0.1210594,  0.0222552, -0.0591097,  0.0138016, -0.0187290,  0.1250263, -0.0757713, -0.1542689, -0.1101093,  0.0348966,
	-0.0433067, -0.2643834,  0.0525884, -0.0288178, -0.1019365, -0.1875565,  0.3518286, -0.0931402,  0.0062547, -0.1968483,
	-0.0427636, -0.0964968,  0.1556722,  0.0316807, -0.3422000, -0.1293649, -0.0908500,  0.2344333, -0.0821707,  0.0878795,
	-0.0198056,  0.2008939, -0.3537286, -0.1263480, -0.0089696, -0.0510743, -0.0769954, -0.0855122,  0.2210295,  0.1027427,
	 0.0047743,  0.1544710, -0.0904851, -0.1584509,  0.0774801,  0.0437938, -0.1206528, -0.0982516,  0.0110201, -0.0709618,
	 0.0902664, -0.0038980, -0.0369539,  0.0214438, -0.1253228, -0.3743505,  0.0300009, -0.1516802, -0.0487293,  0.1879243,
	-0.1311906,  0.1012210, -0.1954989, -0.1145162, -0.0464903,  0.1059779,  0.3730789, -0.2805882, -0.0053149, -0.1263338,
	 0.1572486, -0.1502276,  0.0004206,  0.1783341, -0.1729534, -0.2389363, -0.4237333,  0.0178049, -0.0170977,  0.2410382,
	-0.1405637, -0.0019549,  0.1575217, -0.0616623,  0.1308016, -0.3489803,  0.1224066,  0.1818697, -0.0447975,  0.0351931,
	 0.0036543, -0.1378409, -0.0229632, -0.1055095, -0.1358070,  0.0018545, -0.0912612, -0.2147240,  0.0868735,  0.1560941,
	-0.1835784,  0.2045722, -0.0175570, -0.3801363, -0.0601379, -0.0312049,  0.1311268, -0.0358610, -0.1161957, -0.2040162,
	 0.0807448, -0.0194326, -0.1775664, -0.2481722, -0.1634684,  0.2307314,  0.1463060, -0.0770568, -0.3103247,  0.1318615,
	 0.1327902, -0.4593011, -0.0272930, -0.2062015, -0.2568612,  0.3537411,  0.0370019,  0.0293956, -0.0139659,  0.0473767,
	-0.0499174,  0.0167905, -0.0288610,  0.0508410,  0.2716382,  0.0542997, -0.2025623,  0.2416461,  0.1218218, -0.1118929,
	 0.0351790,  0.0529476, -0.0282880,  0.0886202, -0.1733406, -0.2253534, -0.0893361,  0.0029657, -0.0036685,  0.0902532,
	 0.0527285, -0.0653963, -0.0490885,  0.0195662, -0.1545713, -0.3738904, -0.1593876,  0.1022877,  0.0371679, -0.0069737,
	 0.1706934, -0.2022723,  0.1129153, -0.0137881, -0.1571506,  0.2693199, -0.2120278,  0.0463352, -0.0548110, -0.0115110,
	 0.0347763, -0.0329912,  0.1147800,  0.1374170, -0.0447615, -0.2618240,  0.0286074, -0.1090848,  0.1027376, -0.0355175,
	 0.2112138, -0.2193868, -0.0482657, -0.0890110, -0.3145860,  0.0873021,  0.0439710,  0.1225831,  0.1866932,  0.0461841,
	 0.1277529, -0.0822501, -0.0581653,  0.0532237,  0.1946566,  0.0037593, -0.4130043, -0.2104833, -0.1116659, -0.1953017,
	 0.4202316, -0.1573707, -0.1532742, -0.2671103,  0.2978334,  0.1474598, -0.3095642, -0.0799621, -0.0768883, -0.3922771,
	 0.0405148, -0.1131091, -0.0762104,  0.1039580,  0.0357046, -0.2226775, -0.2121004,  0.0930298,  0.1520839,  0.1034980,
	-0.1694075,  0.1327601, -0.3543310, -0.1588059,  0.2615108,  0.1686810,  0.0382002,  0.1463301, -0.1740949, -0.0998941,
	 0.1011927, -0.0061663, -0.0139652,  0.0510815, -0.2254046, -0.2972229, -0.0290681,  0.0433001,  0.0665335,  0.1190905,
	-0.0105456,  0.1368578, -0.0848062,  0.0135427, -0.2172982,  0.0130152,  0.0815243,  0.1586024,  0.0486648, -0.1698914,
	-0.1158811, -0.0892692, -0.0202792, -0.0572626, -0.1762468, -0.1373556, -0.4750185,  0.0475148,  0.1862974, -0.1204355,
	 0.0852705,  0.1653940,  0.1641954,  0.2972612,  0.0043087, -0.0739057,  0.1182138, -0.2045765, -0.1885053, -0.1916944,
	-0.2168446, -0.0724964,  0.1831954,  0.2793756, -0.1635151,  0.0745187, -0.1983519,  0.0736112, -0.0146845, -0.2368507,
	-0.0684123,  0.0826239,  0.0005677, -0.0297311,  0.0081752,  0.2162639, -0.0600560, -0.0565463, -0.1524086, -0.0670762,
	 0.0134456,  0.2393586, -0.1666212, -0.0691846,  0.1028132,  0.0118759,  0.0140489,  0.1937028, -0.1243046, -0.1262378,
	-0.2215648,  0.0739807,  0.2249626, -0.4266385,  0.1082359,  0.0043070, -0.0445623,  0.2688393,  0.0576572, -0.4503733,
	 0.1850882, -0.0023793, -0.1016894, -0.1285187,  0.3184819, -0.0493493, -0.0084918, -0.0811712,  0.1223119, -0.0523488,
	 0.0025884,  0.0739180,  0.0536107,  0.0191212,  0.0648521, -0.0331737,  0.0743662, -0.0869156,  0.1742727, -0.2349421,
	-0.2153972, -0.0581636,  0.2995248, -0.0250157, -0.2570684, -0.0949511, -0.3048438,  0.0421801,  0.0852682, -0.1760983,
	-0.2562195, -0.3086714,  0.1083343, -0.0889706,  0.0755346,  0.0627864, -0.0190537,  0.0183958,  0.2465129,  0.0006905,
	-0.0058361, -0.3377042, -0.3242373, -0.2476296,  0.1645000, -0.0944086,  0.1776965, -0.1388383, -0.0027359,  0.1004287,
	 0.0363673, -0.0303685, -0.1858110, -0.2333062,  0.0302217,  0.1351668,  0.1239810, -0.1233324,  0.1828146,  0.2002576,
	-0.2869987,  0.0436138, -0.0175204,  0.0671496, -0.0972624, -0.0240249, -0.0359478,  0.0860576,  0.0881328, -0.0352153,
	 0.1054977, -0.1600681, -0.1167562,  0.0389482, -0.0696173, -0.2144805, -0.1611939, -0.0191561, -0.1418615,  0.0623360,
	 0.0265235,  0.1494623, -0.0032600, -0.0293445, -0.0144833,  0.1283894,  0.1742516, -0.1478183, -0.0408152, -0.1730049,
	-0.1156394,  0.1425139,  0.0948383, -0.0388301, -0.1665442, -0.0608491, -0.0136904, -0.0272186, -0.0392474, -0.0851194,
	-0.2346748, -0.1380227,  0.0444668,  0.0554014, -0.0740698, -0.0800823, -0.3791194,  0.1572095,  0.0076890,  0.0231274,
	-0.0701610,  0.0754537,  0.1599175, -0.0119668, -0.0242580, -0.1840011, -0.1968382, -0.1062105, -0.0958991, -0.1260495,
	-0.1651790,  0.1445294,  0.0393350,  0.1848839, -0.1653225, -0.0929992, -0.0005900,  0.1393641, -0.2744707, -0.2902575,
	-0.1752460, -0.2803119,  0.2067591,  0.0084746,  0.0829007,  0.0988635, -0.1282664, -0.0402689,  0.0286205, -0.0947682,
	 0.2626926,  0.0310361, -0.3829848, -0.3988762,  0.0996511,  0.0528137,  0.1127262,  0.3188397, -0.0946817, -0.4310498,
	 0.0439960, -0.0681611,  0.2659309, -0.1326849,  0.1982756, -0.1570797,  0.0397531, -0.0111659, -0.0439326, -0.4516174,
	-0.2737364,  0.0775498,  0.0732393,  0.0234017, -0.0998749, -0.2134606, -0.0704708, -0.2469335,  0.1824588,  0.0647878,
	 0.0769045, -0.0195104, -0.3369599, -0.2395721, -0.1047327, -0.0679384,  0.1184363,  0.2032019,  0.2282923,  0.0648052,
	-0.0923223, -0.4420497, -0.0712538, -0.1410861,  0.0915038, -0.0892824,  0.0330677, -0.1023000,  0.2340921,  0.1352236,
	-0.0014772, -0.1607113,  0.0145555, -0.0837027, -0.1705792, -0.1212070,  0.2830067, -0.0031546, -0.0222421,  0.0446666,
	 0.0075198, -0.3712157, -0.1649688, -0.0762687,  0.1665597,  0.0384528,  0.0741947, -0.3086207,  0.0201447,  0.1063988,
	-0.0450764,  0.1599516, -0.0127839, -0.0723131, -0.0637847, -0.1436894, -0.0486603, -0.2729387,  0.0876128, -0.0569463,
	 0.1639758, -0.2563378, -0.0255573, -0.3162673,  0.0173410, -0.0520750, -0.3014002,  0.0699179, -0.2491187,  0.1781625,
	 0.0643728, -0.3334990, -0.1778644, -0.3118960, -0.0558966, -0.0391652,  0.1452735,  0.0941156, -0.0128810,  0.1350648,
	 0.0540411,  0.3758204, -0.0465252, -0.0968431, -0.1987148, -0.0051214, -0.2356234, -0.1315678, -0.0659189,  0.0775734,
	 0.0555224,  0.0431727,  0.1320547, -0.3975027, -0.0571250,  0.0583789,  0.0004526,  0.0380473,  0.0696420,  0.0442919,
	 0.0521325, -0.3417889, -0.0704061,  0.0190689, -0.2011850, -0.0951909, -0.1109576,  0.1840666, -0.0407418, -0.0106626,
	 0.2343231,  0.0240230,  0.2331939, -0.2698158, -0.0496713, -0.2313039, -0.2931683, -0.0274772, -0.2195944, -0.0283333,
	-0.1023907,  0.1437435,  0.0038620,  0.0244150,  0.0140800,  0.0027297, -0.1692257, -0.1415060, -0.2039735,  0.0089402,
	-0.1069215, -0.0779022, -0.1029910,  0.1011235,  0.0317535,  0.0876125,  0.0688502, -0.0622620, -0.1174130, -0.2577917,
	-0.1010761,  0.1135593, -0.1430513, -0.1077429,  0.1486086,  0.1039825,  0.3346592, -0.2871428, -0.0576622, -0.0846079,
	 0.0824849, -0.2339590,  0.3458844,  0.0121127, -0.0433910, -0.1957029,  0.0494104,  0.0981109, -0.0337422, -0.1742203,
	-0.1305774, -0.1045382,  0.0916500, -0.0557638,  0.0698816,  0.0539361, -0.1141888, -0.1308895,  0.1997053,  0.1494515,
	-0.0656681,  0.0023622, -0.1014847,  0.1777622, -0.2031338,  0.1319438, -0.0299230, -0.1940787, -0.0025999,  0.0717879,
	 0.1815373,  0.0635620,  0.0532630, -0.2141464, -0.0550104, -0.0896457, -0.1134619, -0.1886896,  0.0420210, -0.0818692,
	-0.0682497, -0.0980184, -0.0649965, -0.1618049, -0.0799762,  0.0025549,  0.2245109,  0.0608339, -0.2710493, -0.3370714,
	-0.1989792,  0.0474738, -0.1083763, -0.1400177,  0.3403749, -0.0075354, -0.0079082,  0.0643235,  0.0263260,  0.0331022,
	 0.1194613, -0.1429669,  0.0177794, -0.0922300,  0.0596187, -0.1717464,  0.1029815, -0.1746637,  0.2327321, -0.0343833,
	 0.1233532,  0.1468911, -0.0778343, -0.0837958, -0.0006988, -0.0031381, -0.1211780, -0.1194747,  0.1067702,  0.0079060,
	-0.4196787,  0.1281899, -0.0499737, -0.0840553,  0.1417697,  0.1225006, -0.0170477, -0.2617615,  0.0188222, -0.1208297,
	 0.0940972,  0.1270239, -0.1183868,  0.0300267,  0.0844867,  0.0044766,  0.1435817, -0.1499961, -0.2151544,  0.0325275,
	-0.0886761,  0.0832009, -0.1041351, -0.0653767, -0.0323514,  0.1211020,  0.2217081,  0.0456970, -0.1236870,  0.0935963,
	 0.3226521, -0.0669055, -0.1438146, -0.1472534, -0.1915485,  0.1607651, -0.0296267, -0.0805117,  0.0872956,  0.1675875,
	 0.3399903,  0.0456053,  0.1316034, -0.1057595, -0.2811292, -0.0730580, -0.3206166, -0.0200769, -0.0672836, -0.1081876,
	-0.0534496, -0.0953352, -0.1468274, -0.1954066, -0.1431803,  0.2300460,  0.3318631, -0.2488043, -0.2060779, -0.1552087,
	-0.1154715, -0.1359440, -0.2435461,  0.0675318, -0.2553806, -0.0131702,  0.2621948,  0.1340559,  0.1513309, -0.2148133,
	-0.2195381,  0.1167370, -0.0220816,  0.1360176,  0.2606484, -0.1864443, -0.0805464,  0.2038561,  0.0734887, -0.0857407,
	-0.0508606, -0.3749014,  0.0449858,  0.0448170, -0.1780016, -0.2271861,  0.1736091,  0.0769249, -0.0938099, -0.0344694,
	-0.0018483, -0.3145108, -0.1142052, -0.0247959, -0.1475423,  0.0633512,  0.0983315, -0.0480941,  0.1804366, -0.0883262,
	-0.0840306, -0.2448574, -0.2347558,  0.2457573, -0.1435703, -0.0548460, -0.1268924, -0.0906275,  0.2352238,  0.0492825,
	 0.0636066,  0.0677506,  0.1011489, -0.0579794, -0.1613617, -0.1017467,  0.0616412, -0.1107583, -0.1364885,  0.0181735,
	 0.1024273,  0.1332771, -0.1202381, -0.1087494, -0.0174792, -0.0549117,  0.0822199,  0.2036782, -0.0103479, -0.3730783,
	 0.0524003,  0.0203312,  0.0787124, -0.1179927,  0.3017856, -0.1314376, -0.1221374,  0.3199169, -0.1564030, -0.2100881,
	 0.1336555, -0.0725529, -0.0179163, -0.2440818,  0.1500300, -0.1371286, -0.0219952, -0.3202763,  0.0323366,  0.0302555,
	 0.0352398,  0.0799576,  0.0081971, -0.0197749,  0.0279986,  0.0719648, -0.1111369, -0.0222925, -0.1535572,  0.1697339,
	-0.2770721,  0.1045130, -0.1500260, -0.1328641,  0.2537256,  0.0978374, -0.0780415, -0.0519027,  0.1367855, -0.0211096,
	 0.0811002,  0.1395289, -0.2934206, -0.0612344,  0.0503013, -0.1418879,  0.2263571, -0.0673308, -0.2303632, -0.0971555,
	-0.1923514,  0.0704667, -0.0894478,  0.2176289, -0.0979296,  0.0449687,  0.0153791, -0.0141561, -0.1767811, -0.0844897,
	-0.1895544, -0.0914621, -0.0081107, -0.2710341,  0.1258864, -0.2385406, -0.3721995,  0.1675988,  0.1267319,  0.0825098,
	 0.0652612, -0.0554247,  0.1127240,  0.0171904,  0.0491275,  0.1911629, -0.1142861,  0.2253927,  0.0109179, -0.0197631,
	-0.3924517,  0.0572601, -0.1920836,  0.0303882,  0.0049984,  0.0789362, -0.3127085,  0.0388377, -0.2135448, -0.1881526,
	-0.1621412, -0.1234398, -0.0489939,  0.0407775,  0.1419974,  0.1622794, -0.2465974, -0.1909900, -0.1480215,  0.1993616,
	 0.1185854, -0.0429324, -0.0823905, -0.2670753,  0.2457564, -0.1887428, -0.2007650, -0.1553010, -0.0067212,  0.1648167,
	-0.1843152, -0.0759836, -0.0434901, -0.1302736, -0.0665663,  0.1870492,  0.0537970,  0.1351890,  0.0446845, -0.0327667,
	-0.0662946,  0.0297056, -0.0051224, -0.1048873, -0.0955161,  0.0495212, -0.1834585, -0.2370461,  0.3620749,  0.0071089,
	-0.0964676, -0.1369706, -0.0229588, -0.2549673,  0.1580892, -0.0419959, -0.0347782,  0.0034396,  0.1802622,  0.0218299,
	-0.2996493,  0.1334865, -0.0775957,  0.2303608,  0.0934488,  0.0763029, -0.3173953,  0.0483978, -0.0477615, -0.0549450,
	 0.0280407, -0.1963329, -0.1186857, -0.0011322,  0.0949910, -0.0878850, -0.1609693,  0.0166851,  0.0135702,  0.0578405,
	 0.2485769, -0.4509619, -0.0738904, -0.0614346,  0.1308916, -0.1458018,  0.2007264, -0.4268726,  0.0504241,  0.2543825,
	 0.1434843,  0.0118978,  0.0989174, -0.1531305,  0.1233100, -0.1542995,  0.1054865, -0.3696434,  0.1885706, -0.0247455,
	-0.2095651, -0.0204617,  0.0829344, -0.0027696, -0.0730210, -0.1816721, -0.1004226,  0.0231245, -0.0697760,  0.0333162,
	 0.0781962, -0.0621361,  0.0761440,  0.0085392, -0.1262928, -0.0583062, -0.0372702, -0.1532224, -0.1166492, -0.2351546,
	 0.2623701,  0.0180718,  0.0650212,  0.1192882, -0.1020047, -0.0915370,  0.0968478, -0.1661876,  0.0801993, -0.2776149,
	-0.0557786,  0.0424699,  0.1659038,  0.0492483,  0.0160182, -0.1319259, -0.1577938, -0.1307655,  0.0560452, -0.1488692,
	-0.1586430, -0.3266981,  0.0430459,  0.0052741,  0.2285304,  0.1235894, -0.3929517, -0.1908040,  0.0471236,  0.1312943,
	-0.1322424, -0.0807284,  0.1290446,  0.2287535,  0.0880214, -0.0110368, -0.2363065,  0.0360215, -0.0982487,  0.0915984,
	-0.3931744,  0.1680484,  0.0541204,  0.2498085, -0.1757658,  0.1838521, -0.3935916, -0.0450255, -0.4731907,  0.0404004,
	-0.0662540, -0.2260023, -0.0735691, -0.1156664,  0.0002542,  0.0746185, -0.1904482, -0.0486968, -0.0287450, -0.0666720,
	-0.0043190,  0.1253439, -0.0254962, -0.1139761,  0.1252171,  0.0621936,  0.0674442, -0.1052389, -0.0215192, -0.0932334,
	-0.0462391,  0.0493603,  0.2216485, -0.2721631,  0.1423772,  0.0673923, -0.1499704,  0.1371051, -0.0772760, -0.1895870,
	-0.0039537, -0.0792901,  0.0782610, -0.1854671,  0.1914366, -0.1961247, -0.2135062, -0.0912908,  0.0190822,  0.2137700,
	 0.1787727, -0.2004251, -0.0568704, -0.0634567,  0.1209433,  0.1282915, -0.0249543, -0.2182631,  0.0479266,  0.2585408,
	 0.1363617, -0.0251848, -0.1837986,  0.1631947, -0.1359644,  0.1226185, -0.2398131, -0.3430033, -0.0755607,  0.1751327,
	-0.0815079, -0.0303834, -0.0536882,  0.1038153,  0.2009045,  0.0140934, -0.0434169, -0.1249866,  0.1644732,  0.0492586,
	-0.0512478, -0.1022731,  0.1192514, -0.0608112,  0.0323935, -0.0991028,  0.3511837, -0.1562421,  0.0884806, -0.0178870,
	-0.0040392, -0.0140375,  0.0069211,  0.1048616,  0.0268542, -0.0878761, -0.0224054, -0.1810602,  0.0610918, -0.1300502,
	 0.2332662, -0.1301447, -0.0459388, -0.2401606,  0.1933381, -0.0257349, -0.0717875,  0.2550573, -0.1832090,  0.0699401,
	-0.0097375,  0.1982410,  0.2140034, -0.0260122, -0.2034751, -0.1586035,  0.0383882, -0.0808584, -0.0482514, -0.2330694,
	-0.0395651, -0.0114086,  0.0428459,  0.0964236, -0.3260270,  0.1595128, -0.0695569, -0.3131983, -0.0544612, -0.1431091,
	 0.0777397,  0.0103840, -0.1387073,  0.0641886,  0.0264906, -0.0425300, -0.1028151,  0.2724362, -0.3368253, -0.0498538,
	-0.2425869, -0.2882300, -0.1369811,  0.1735111, -0.1585205,  0.1586129,  0.1431895,  0.0643844,  0.1023205,  0.1114678,
	-0.0065105,  0.1359953, -0.2437866, -0.1054976,  0.0758052, -0.0100105, -0.2579238,  0.1486533, -0.2255967, -0.0496058,
	 0.0291143, -0.0436387, -0.0435539,  0.0439806, -0.0751267, -0.1117497, -0.2144871,  0.0935004, -0.2134993,  0.2264952,
	-0.0935344, -0.1268950,  0.0381701, -0.1638421,  0.1909809, -0.0914553, -0.0957050, -0.0130133,  0.0381719,  0.0646457,
	 0.0486498,  0.1168958,  0.0530369, -0.2606847,  0.0083789, -0.0118778,  0.0180184,  0.1008437,  0.0377737,  0.0966423,
	-0.1790085, -0.0793979,  0.3190196, -0.2827637,  0.1542849,  0.1588591, -0.0208315,  0.1759732, -0.2609641, -0.1389760,
	 0.0638899, -0.4056202,  0.0034744,  0.1415561,  0.0463364, -0.0567711, -0.0014385, -0.0424854, -0.2098931,  0.1705726,
	-0.1143856, -0.1027317, -0.0208350, -0.0305232, -0.0509817,  0.0001331, -0.0886300, -0.3245196,  0.1696125,  0.1266085,
	 0.0243923,  0.1455534,  0.0005680,  0.0989356, -0.0700470,  0.0640848, -0.0642966, -0.1359346,  0.1790465, -0.3634494,
	-0.2182614,  0.0873919,  0.1016555,  0.1874830,  0.2324139, -0.0477571,  0.0003325, -0.0565312, -0.0050499, -0.0176807,
	-0.2105268,  0.2102748, -0.0098220, -0.0001721,  0.0759325, -0.1444028,  0.0004856,  0.3237494,  0.0315742,  0.0510220,
	-0.2889619,  0.0989606,  0.1733526, -0.0391727,  0.2239325,  0.0489635, -0.0855903, -0.0625528, -0.0741955,  0.0786965,
	 0.2058216, -0.2646748, -0.0931952, -0.1048312, -0.2178079,  0.2190877,  0.1611450,  0.1510297, -0.1822110,  0.0600367,
	-0.1144213,  0.0519823,  0.1417495, -0.0906905,  0.1717951, -0.0372116, -0.1309735,  0.2031514, -0.0893415, -0.1249790,
	-0.1008589,  0.1111427,  0.0386860,  0.1114407, -0.4402355,  0.0827676,  0.3034942, -0.0947396, -0.0160418,  0.1214428,
	-0.2443601,  0.0845582, -0.3256597,  0.0060529, -0.2953840,  0.2845537,  0.0508540, -0.0364996, -0.0303716, -0.0031602,
	-0.1252593,  0.0506948, -0.0663308,  0.1246655, -0.1809890,  0.2188328,  0.1115543,  0.1368199,  0.1875367, -0.2153290,
	 0.0433473, -0.0857053, -0.4141299, -0.0958990, -0.1395547, -0.1916204, -0.0932782,  0.0483280,  0.0740062,  0.1850686,
	 0.2077575,  0.0108479,  0.0126894,  0.0012215, -0.2084904,  0.1075656,  0.0403729,  0.0150011, -0.0822800, -0.1493931,
	-0.0056274, -0.0575090,  0.2791374,  0.0263048,  0.0439301,  0.0146721,  0.0607633,  0.1942254, -0.0503213, -0.4052010,
	 0.0222293,  0.0005857,  0.1260138, -0.3934888,  0.2436202, -0.2181949,  0.0065755,  0.0294777,  0.0191259, -0.1806159,
	 0.0190704, -0.1845935,  0.1437233,  0.1879206, -0.2533579,  0.0064616,  0.0505155, -0.0824793, -0.1409338, -0.1377949,
	 0.1696982, -0.3917046, -0.1068745,  0.2537748,  0.0291421, -0.0325363, -0.0416662,  0.2018926,  0.1155157, -0.2915436,
	-0.0053046, -0.2195206,  0.0201383,  0.1538462,  0.1075886, -0.0246390,  0.1175431, -0.0493291,  0.2877742,  0.0057222,
	-0.1547614, -0.0888017, -0.0399767, -0.0157152, -0.1872852,  0.0937972, -0.0516370, -0.2952140,  0.0138752, -0.0028966,
	-0.3647369,  0.0495617,  0.0353026,  0.0913213,  0.0724145,  0.0990283, -0.0566565,  0.0135315,  0.0639578, -0.2034166,
	-0.1124856,  0.1767116,  0.1454588, -0.1738177,  0.2077605, -0.2151991,  0.0515083,  0.1492768,  0.1197667,  0.2241020,
	 0.0994898, -0.3305849,  0.0249946, -0.1890513,  0.0867438,  0.0131533, -0.1888857, -0.3392272, -0.1363414, -0.1251430,
	-0.2503164, -0.0647087, -0.0739033, -0.1297871,  0.0891532,  0.2178575,  0.1032549, -0.0696085, -0.0276231,  0.0004087,
	-0.0020003, -0.0860505, -0.0299289, -0.3131695, -0.0342701, -0.1471822,  0.0139165, -0.0402369, -0.1015387, -0.0503917,
	 0.0601189,  0.0989824, -0.2480557,  0.1503001, -0.0389390,  0.0847105,  0.1732619, -0.0804491,  0.0055716, -0.1663360,
	-0.3602340,  0.0208270,  0.0107750, -0.2069259,  0.2211347, -0.1720568, -0.1277075,  0.3372274, -0.0910019,  0.1059561,
	-0.1487382, -0.0417172, -0.0624878, -0.0576341,  0.2051950,  0.0388348, -0.2528993,  0.1153190, -0.1365869,  0.1057795,
	 0.0635344, -0.0309223, -0.0809557, -0.0968873,  0.1419987, -0.2318459,  0.1930666,  0.0073511,  0.1653240,  0.0130576,
	-0.2209326,  0.0916488, -0.0861464, -0.1123802,  0.1447864, -0.0136869,  0.0528148,  0.0995246, -0.1142414,  0.0099984,
	-0.0565044,  0.2411273,  0.0360950,  0.1698940,  0.0119809, -0.0173598,  0.0005928, -0.1762185, -0.0070332, -0.0380429,
	-0.1148462, -0.0624519, -0.0067756,  0.0041247,  0.1210215, -0.1579984, -0.1892132,  0.2889902, -0.3333785,  0.1714570,
	 0.1855056, -0.0813491, -0.0794767,  0.0844282, -0.0880964,  0.2254218,  0.0541708, -0.3545869, -0.2184982, -0.0507577,
	-0.1076512,  0.0373819, -0.2013862,  0.1500763,  0.0682177,  0.0185834, -0.1792978,  0.1467447, -0.2376118,  0.1662370,
	 0.2515947, -0.1433680,  0.2416764,  0.0155388, -0.0505246, -0.1033556, -0.0499750,  0.0146462, -0.2258748,  0.0844311,
	 0.0650923, -0.2372579, -0.2666295,  0.2249274, -0.2204122,  0.0860946, -0.1611014, -0.1422978, -0.1682526, -0.0685816,
	 0.1158417, -0.0846870, -0.0013327, -0.1367361, -0.0141654, -0.0256600,  0.1355595, -0.3521612, -0.0639682,  0.0935636,
	 0.1427204, -0.0434975,  0.2276857, -0.0736717, -0.1068105, -0.3015693,  0.0402496, -0.3338346,  0.2384133, -0.1352646,
	 0.1893176, -0.0317599,  0.0280810, -0.2470264, -0.1356954, -0.2930843,  0.1924749, -0.0664493,  0.1449014, -0.2455446,
	-0.2001488,  0.0637722, -0.1452658, -0.1094504,  0.2462990, -0.1845564, -0.0402086,  0.1377242,  0.0239936,  0.2184814,
	 0.2189747,  0.0799313,  0.2057496, -0.0320817, -0.1098145,  0.0512168, -0.1070571, -0.0957786,  0.0769556, -0.2324368,
	 0.2419940,  0.1984403, -0.0789288, -0.1825054, -0.0377973, -0.3216461,  0.1407402,  0.1342333, -0.1953501, -0.2487632,
	-0.0454457, -0.1959609,  0.0603990, -0.1818615,  0.1192644, -0.0037034, -0.1400207,  0.0438257, -0.3494633,  0.0688805,
	 0.0165469, -0.2765536,  0.1811248,  0.1454584,  0.1655241,  0.0789906, -0.1932550, -0.0114538, -0.2504446,  0.0175761,
	-0.1857739,  0.0152688, -0.1107078, -0.2946714,  0.1957238, -0.0212181,  0.0393239,  0.0310878,  0.1035349,  0.2289070,
	-0.3133061,  0.1823437, -0.1679230,  0.2132982, -0.1041523,  0.2013319, -0.1942451,  0.0152580, -0.3434429,  0.2209359,
	 0.0672296,  0.0083834, -0.1374834,  0.1007728, -0.1922680,  0.0699372,  0.0870186, -0.5033376,  0.1421352, -0.1553615,
	 0.1221666,  0.1906754,  0.0880176, -0.2521398, -0.0866624, -0.0394957,  0.0489976,  0.2611704, -0.1910569,  0.0986858,
	 0.1098627,  0.0726089,  0.0975605, -0.0388791, -0.2101309,  0.0051285, -0.1109629, -0.0771338, -0.1117505, -0.0060836,
	 0.1039473, -0.3292323, -0.3155220,  0.1570602, -0.0731249,  0.1830152, -0.0048790,  0.0543269, -0.1778737,  0.0970535,
	 0.2296196, -0.3125409,  0.1294483, -0.2081443, -0.1352469,  0.0336758, -0.0360272, -0.6275424,  0.0140169,  0.1514504,
	 0.0904751,  0.0175242, -0.1037615,  0.3102177, -0.1647811,  0.1263168, -0.1411656, -0.3554835,  0.0425180, -0.1280376,
	-0.1156966, -0.1790345,  0.0373915, -0.1687787,  0.2192104, -0.1752120,  0.1536703, -0.1718651, -0.3021156,  0.2251501,
	 0.2493017,  0.0066740,  0.2274113, -0.1832109, -0.0757016, -0.0192306, -0.0123158, -0.2002963,  0.1140024, -0.2974390,
	-0.0786812,  0.1447139,  0.1711406,  0.0614910, -0.1190238, -0.2401504, -0.0465043,  0.1203428,  0.0627104, -0.1091615,
	-0.1685094, -0.0749989, -0.1954109,  0.1803515,  0.0637521,  0.0747192, -0.2127527, -0.0738851, -0.1496780,  0.0256466,
	 0.0460551,  0.0518942, -0.0597435, -0.2188545,  0.1562449, -0.2419144,  0.0637220,  0.3023870, -0.1490728, -0.0003327,
	-0.2813636,  0.0487273, -0.2452078,  0.2932877, -0.1034348,  0.0362077, -0.0632653,  0.0893517, -0.1793795, -0.0578420,
	 0.0803938,  0.0967308, -0.0877003,  0.1347069, -0.0110012,  0.2016917,  0.0511641,  0.2157169, -0.0455250,  0.0987611,
	 0.0406435, -0.2547003,  0.0009333,  0.1656595, -0.2297301,  0.0620751,  0.2509561, -0.1414923, -0.1031538, -0.0222685,
	-0.1519282,  0.0095869, -0.0159941, -0.0784249, -0.0062791, -0.1659172, -0.2868552,  0.2089150, -0.2876647,  0.0178069,
	 0.0342026,  0.1145529,  0.0314326,  0.0455190,  0.0420899, -0.0482579, -0.0744618, -0.0173317, -0.1565558,  0.0191569,
	 0.2663405, -0.0051839,  0.1595495, -0.0319985,  0.0076597, -0.1542261,  0.1570515, -0.3698837, -0.1655926, -0.2014065,
	 0.0449741,  0.1755600, -0.0644899,  0.0343131,  0.0965896,  0.1520556, -0.0467008,  0.2366306, -0.1254369, -0.0437464,
	-0.0492020, -0.0330909,  0.1712838, -0.1158996, -0.1622648,  0.2291719, -0.0468784, -0.2468018, -0.1292753, -0.1414064,
	 0.0042305, -0.2336366, -0.3239504,  0.2471813, -0.2375415,  0.0807436,  0.1156040, -0.3667600,  0.0555865,  0.1416904,
	-0.0219837, -0.1548534,  0.1353645, -0.1479374,  0.0138864,  0.0924407,  0.2478697, -0.1883528,  0.1570720, -0.1359454,
	 0.0346456,  0.0749295, -0.0295909, -0.0095367,  0.0167689, -0.0184282, -0.0991807, -0.1088165, -0.0232123, -0.0650796,
	-0.1079372,  0.1332078,  0.2402700, -0.0075534,  0.2556867, -0.1287337, -0.1108305, -0.1995348, -0.1072976,  0.1310734,
	-0.0407706,  0.1437227,  0.2728497, -0.1343821, -0.0894168, -0.2053267, -0.0875189, -0.0657667,  0.0533625, -0.0983139,
	-0.3286937,  0.1051319,  0.1116610, -0.2041183,  0.0714525, -0.2129019, -0.1601583,  0.0537020, -0.0446332, -0.0319723,
	 0.0000001, -0.0517520, -0.0955946,  0.0093740, -0.0054621,  0.0887384, -0.0064164, -0.0621999, -0.0587998, -0.0050353,
	 0.1607920,  0.0682334, -0.0701409, -0.1707621,  0.0179194, -0.1496284, -0.0906462,  0.2707688, -0.3461642,  0.0376625,
	-0.1532696,  0.1239141, -0.2853641,  0.1476862, -0.2687619,  0.0588800, -0.0364473,  0.0616823,  0.0245836, -0.0938533,
	-0.2401118,  0.1974160,  0.0379049, -0.0387899, -0.0230963, -0.0395009, -0.2266853, -0.1222610,  0.1961447, -0.0198897,
	-0.1225132,  0.1450531,  0.0936413, -0.1979819,  0.0507893, -0.1708682,  0.0907135,  0.0623346, -0.0095230, -0.1416970,
	 0.1003524,  0.0283902, -0.1109486,  0.0853834,  0.0028443,  0.0523002,  0.0014563,  0.1735181,  0.0701110, -0.0445162,
	 0.3044240,  0.1007084,  0.1422127, -0.2875158, -0.1011011, -0.0385058, -0.0220386,  0.0365384, -0.0598625, -0.1724946,
	 0.1474230,  0.2177669,  0.2605298, -0.2874922, -0.1670349, -0.2332063,  0.1942642, -0.0858623, -0.0952466, -0.2553777,
	 0.0738766, -0.0254190, -0.0191005,  0.0020808, -0.1592401,  0.1554033, -0.0443140,  0.0658927, -0.3359924, -0.0115901,
	-0.1249640, -0.0524143, -0.0434272,  0.0462178, -0.1403289,  0.2402486,  0.1542072, -0.2090910,  0.2372325, -0.2029339,
	 0.1238281,  0.0615602, -0.0638067,  0.0591795, -0.1631183, -0.1276835,  0.1126049, -0.0367663,  0.1381155, -0.2822964,
	 0.0314031, -0.0830749,  0.1553570,  0.1360919, -0.1073594,  0.0013996,  0.0733558, -0.0528336,  0.1300558, -0.3681906,
	-0.3025053,  0.0960486, -0.3209001,  0.0974481, -0.1408512, -0.0491749,  0.0227193,  0.1504553,  0.3163953, -0.0349753,
	 0.0893374,  0.1516767,  0.2345120, -0.2534298,  0.1239244, -0.0916506, -0.0004131, -0.0865798, -0.2888848, -0.0319969,
	-0.3251859, -0.0511386,  0.3510055, -0.1531449,  0.0607668, -0.4384724, -0.0186788, -0.1628374,  0.0083916,  0.3335239,
	 0.0571403,  0.1442717, -0.1443920, -0.0965562,  0.0763418,  0.0643540, -0.2607264, -0.2723487, -0.0871806,  0.1513995,
	-0.1687858,  0.1971736, -0.0536433, -0.0651679,  0.0785503,  0.0314577, -0.0743682, -0.1102089,  0.2365239,  0.0217451,
	-0.0805974, -0.0832221, -0.1025340, -0.0866033,  0.1180042, -0.1636131,  0.1032255,  0.3046178, -0.5062739,  0.1859446,
	 0.0827942,  0.1013918, -0.1816593, -0.1130582, -0.1219525,  0.1420470, -0.1871462,  0.1200678, -0.0079738, -0.0937464
};

const float biases[10] = {
	-0.0079821,  0.0301827, -0.0528788,  0.0082111, -0.0020487, -0.0085998, -0.0089527,  0.0350763,  0.0459345,  0.0002960
};