const float weights[2560] = {
	 0.0765229,  0.0033843,  0.0338357, -0.1134107, -0.1721173, -0.1706881, -0.1586253,  0.1164850, -0.0700918, -0.0350173,
	 0.0661699, -0.0885615, -0.0151767,  0.1752905, -0.2095736, -0.1110417, -0.0834036, -0.0204224, -0.0992520,  0.0330014,
	-0.1178632,  0.1094636,  0.0809254,  0.1093773, -0.0799040,  0.0088696, -0.0228227,  0.0122099, -0.0052817,  0.0276237,
	 0.0241857,  0.1421111, -0.0655304, -0.2477655,  0.2247350,  0.1965870,  0.2318395,  0.2014075, -0.0994566, -0.1731621,
	-0.0028592,  0.1658873,  0.0105467,  0.0256719,  0.1223344, -0.0212068,  0.0275433,  0.0034038,  0.0392629, -0.2058969,
	-0.2096167,  0.0841941, -0.1674377,  0.0932520,  0.2035164, -0.0352639,  0.1082676,  0.0689565, -0.0219525, -0.3099388,
	 0.0340061,  0.0179261,  0.0130826, -0.1765542,  0.1044007,  0.0171357,  0.0842359,  0.0039800, -0.0442966, -0.0417244,
	-0.0486357,  0.0543652,  0.0202397, -0.0880615, -0.0554739, -0.0572337,  0.0561016, -0.0597962, -0.0878976, -0.1984033,
	-0.0423840,  0.0671099, -0.1149805,  0.0631326,  0.0455675,  0.1205280, -0.2981622,  0.1701377, -0.1479011, -0.3057369,
	-0.0688225,  0.0532561, -0.0798835, -0.1706080, -0.0001566, -0.1269383,  0.0636433, -0.0721922, -0.1350227, -0.1280319,
	-0.1609718,  0.1447374,  0.0403553, -0.0125579,  0.0594878, -0.0614978,  0.0284215,  0.0561382, -0.0072281, -0.2297825,
	-0.1551266, -0.0517409, -0.0152148, -0.0744911, -0.1324203, -0.0985336, -0.0959249,  0.0383969, -0.2317017, -0.0283980,
	-0.1394358, -0.2126348,  0.1222130, -0.0004403, -0.2307631, -0.1081501, -0.1454688,  0.1496476, -0.0948396,  0.0601234,
	-0.0118773, -0.0808079, -0.0305001,  0.0941109, -0.0716058, -0.1465608,  0.0776878, -0.0034401, -0.1360792, -0.1183592,
	 0.0296207,  0.1493295,  0.0157031,  0.0719384,  0.0647941,  0.0248241,  0.1102472, -0.0379316,  0.0374710, -0.1451763,
	-0.0217486, -0.0933502, -0.0756469, -0.0148713, -0.1057138, -0.0069665,  0.1499839, -0.0445026, -0.0330411, -0.1171747,
	 0.1037608,  0.0485349, -0.0517693,  0.1304277, -0.2525909,  0.0285578,  0.0205410, -0.0977397,  0.0053688,  0.1846624,
	-0.1418204,  0.0984836, -0.0578174,  0.0125184, -0.3377154, -0.0576009, -0.0861402,  0.1086637,  0.1582308,  0.0453262,
	-0.1449458,  0.1957657,  0.2309561,  0.0178425, -0.2257548, -0.1595582, -0.2360676,  0.1152444, -0.0545777,  0.0207090,
	 0.0725828,  0.1076265, -0.0758829, -0.1375699,  0.1309089, -0.1003005, -0.1148366, -0.2480913, -0.1737550,  0.0292083,
	-0.2596155,  0.0021981,  0.1310260, -0.0441078,  0.0583669,  0.0471962,  0.3173332, -0.1796562, -0.0867073, -0.2611737,
	 0.1505220,  0.1174505,  0.2027738,  0.0886739,  0.1276836, -0.3119698, -0.0359622, -0.0898864, -0.0011149,  0.1132351,
	 0.1673703,  0.0428471, -0.1639027,  0.0313676,  0.1383398,  0.0124463,  0.0090219,  0.0963257, -0.0745460, -0.0682115,
	-0.1546070,  0.0105120,  0.2939333,  0.0103903, -0.0626683,  0.0608957,  0.1887889,  0.0744659, -0.3234289, -0.3194059,
	 0.1012088, -0.2352335,  0.0694798,  0.2081563, -0.2405540, -0.2204699, -0.3607908, -0.0729501,  0.0039182,  0.2247613,
	 0.0511515,  0.2358712, -0.0607885,  0.1121497,  0.0716040,  0.1705408,  0.0062621, -0.1149655,  0.0087460,  0.0101797,
	-0.1224428,  0.0371599,  0.0135683,  0.1950093, -0.1261095,  0.0078287, -0.1554783,  0.1691000,  0.0092385,  0.0675712,
	-0.1516942, -0.1647739,  0.1358950,  0.0851643, -0.3507366,  0.1389420,  0.1515396, -0.1983695,  0.1421609,  0.0671907,
	 0.1338947, -0.1837978,  0.0984897,  0.0528282, -0.1346581,  0.0092933, -0.0829371,  0.0929033,  0.1173173,  0.2256439,
	-0.2834977, -0.0162986, -0.0691941,  0.0124959,  0.1377575, -0.1506689,  0.2771260, -0.1438185, -0.2109416, -0.3414953,
	-0.1397808, -0.1326741,  0.2052952, -0.2261171,  0.0658771, -0.0088231,  0.1679388, -0.0639746, -0.1454545, -0.3079997,
	-0.1164502,  0.0019678, -0.0262899, -0.2954755, -0.2104664,  0.2692457,  0.0478100,  0.1820921, -0.0164551, -0.1333070,
	-0.0379889,  0.0918449, -0.0112977,  0.0410617,  0.0180432,  0.0228323,  0.2782578, -0.1811011, -0.0980287, -0.0057214,
	 0.0506160,  0.0246904,  0.0696329, -0.1164952, -0.0058582,  0.0866874,  0.1099206, -0.0868672,  0.0291530,  0.0157429,
	-0.0331250, -0.0049827,  0.0857108,  0.1425712, -0.0835797,  0.0768108, -0.0502536, -0.0068811,  0.0551454, -0.0233871,
	 0.1277380,  0.0609400,  0.1456773,  0.1061462, -0.0636012, -0.2161377, -0.2138075,  0.0124058,  0.0479824,  0.0818387,
	-0.0722322,  0.1647401,  0.0068554,  0.0603359,  0.1478530, -0.0908370,  0.0229466,  0.0436888, -0.1300977,  0.0220015,
	 0.0953939, -0.1248707,  0.0216586,  0.2576260,  0.0689765, -0.1099847, -0.2707748,  0.0628028,  0.0152130, -0.0527572,
	-0.0665957, -0.0581196,  0.1340995,  0.1029500, -0.2389145, -0.0604085, -0.3104659,  0.1759406, -0.0506576, -0.0770870,
	-0.1474516, -0.0979290,  0.1704563,  0.2703853,  0.0335014, -0.3703775, -0.0166665, -0.0462547, -0.1397179, -0.0458453,
	 0.0515072, -0.1524614, -0.0240601, -0.1271707, -0.0094182,  0.0400346, -0.0299178,  0.0639889, -0.0466970,  0.1960274,
	-0.0522301, -0.0382131, -0.0010105,  0.0503611, -0.0529366, -0.0645310, -0.0229179, -0.1906382,  0.1129993, -0.0169669,
	-0.0082206, -0.0982098,  0.1123876, -0.0175483, -0.1350906,  0.0183565, -0.0771248, -0.1025343,  0.2418097,  0.0879980,
	-0.1951536, -0.1206836,  0.1568288, -0.1590589, -0.1743724,  0.1482580,  0.3339027, -0.2225854,  0.1431946,  0.0897248,
	 0.0269315, -0.0175853, -0.0147879, -0.0236012,  0.1117372,  0.0488002,  0.1096032, -0.1766797,  0.0730139, -0.1212477,
	-0.1315200,  0.0632122, -0.0739488,  0.0306965,  0.4416794, -0.1313744,  0.2141277, -0.2450625, -0.0896563, -0.3615973,
	-0.1400208, -0.0166960,  0.0465188,  0.0371327, -0.0814272,  0.1005383,  0.1609473, -0.1390777, -0.1701181, -0.1032944,
	-0.0843856,  0.2639498, -0.1602899, -0.1803253, -0.0325684,  0.2385333,  0.0790104, -0.1734893, -0.0530036, -0.2105251,
	-0.2533336, -0.0127719, -0.1766067, -0.0316881, -0.0913764,  0.0197712,  0.1619062, -0.0013589, -0.1229033,  0.0479255,
	 0.0234794, -0.0117453,  0.0754054, -0.1061272,  0.0490361,  0.0034596,  0.0825193,  0.0134138, -0.0558261,  0.0767807,
	-0.1104041,  0.1237496,  0.0183309, -0.1049601, -0.0599233,  0.3109238,  0.0120127, -0.1451248, -0.1485782,  0.0554583,
	 0.2085905,  0.0138982,  0.1657213, -0.0203001, -0.1368587, -0.3569997, -0.0531850,  0.0072591,  0.0243001,  0.1230547,
	 0.0661594,  0.2235951, -0.2593775, -0.1850873,  0.1588526,  0.2914054, -0.1275632, -0.0931145, -0.1247732, -0.2219798,
	 0.1108264, -0.1315740,  0.0158306,  0.0035992, -0.0702973, -0.0241098, -0.2142678,  0.0832210,  0.1940841,  0.1899255,
	-0.0236721, -0.0370365, -0.1193107, -0.0306085, -0.3234408, -0.0045904, -0.0408613,  0.1296044,  0.1094691,  0.1601497,
	-0.1903818, -0.0579032,  0.1043347, -0.0428151, -0.0873907, -0.0496668,  0.0047679, -0.1446084, -0.0862027, -0.0843494,
	 0.0929048,  0.0433641, -0.1487983, -0.1525524,  0.1637703,  0.1137958, -0.0740800, -0.0801023, -0.1395979, -0.1427970,
	 0.1999385, -0.1443343,  0.0520737, -0.1432686, -0.0298882,  0.0929155, -0.0369486, -0.1538481, -0.0080439, -0.0775981,
	 0.0036510, -0.0688850, -0.0610208, -0.0132791, -0.0804833,  0.1109258,  0.0911772, -0.1623691,  0.1171026, -0.0657223,
	-0.1106005,  0.0716919, -0.2413476, -0.0644930,  0.1490283,  0.0466681,  0.1124983, -0.0905476, -0.0011322, -0.2024673,
	-0.0242380, -0.1857475, -0.1849651,  0.0396635, -0.0117114,  0.3303030, -0.1941501, -0.1110814,  0.1773771, -0.2465649,
	-0.1836678,  0.2111749,  0.0902348,  0.0147937,  0.0884425,  0.0282548,  0.1290899,  0.0312897,  0.0494256, -0.1919046,
	 0.1085263,  0.0406748,  0.0095219, -0.0366121,  0.1236169, -0.0679563,  0.1084996, -0.1210960, -0.0748134,  0.0201099,
	 0.2342895, -0.0381765,  0.1986427, -0.2784181,  0.0769783, -0.2542740, -0.2156411, -0.2539923, -0.0460293, -0.1637072,
	-0.1724664, -0.0678056,  0.1713616,  0.1443881,  0.1871697, -0.1375625, -0.0116526,  0.2400738, -0.1891210, -0.2659259,
	-0.1353924,  0.2015410, -0.0577693, -0.2639951, -0.0745714,  0.0039444,  0.0629173,  0.0359302,  0.0161423, -0.0639232,
	-0.0310570, -0.0770864, -0.0768733,  0.1120219, -0.0126980, -0.0233784, -0.0157319,  0.0944613, -0.0784112, -0.1203372,
	 0.0333862, -0.3143202, -0.3904218, -0.2189666,  0.1634994, -0.1758786,  0.2608530,  0.1903341, -0.2300495,  0.0679540,
	-0.1133906,  0.1754054,  0.0909504,  0.0414898, -0.1013825,  0.0298083, -0.0595414,  0.0594934, -0.1951513,  0.0286991,
	 0.1315060, -0.2060427, -0.0545558, -0.0046179,  0.1131304,  0.0166956,  0.1056076, -0.0916511, -0.0279764, -0.0018909,
	 0.1049395,  0.1377206,  0.0088760,  0.0172356, -0.1811574, -0.1052386,  0.0462181,  0.1286236, -0.1972367, -0.3039138,
	-0.0548065,  0.0854353, -0.2531021, -0.2402182,  0.1778729,  0.1794485,  0.0453275,  0.0724670, -0.0282037,  0.0454857,
	-0.1054347, -0.4529666,  0.1539862,  0.1659613, -0.0679316, -0.0686335, -0.3470637, -0.0827006,  0.0370366,  0.1014474,
	 0.1688256, -0.3089374, -0.3402624, -0.3253837,  0.0920592,  0.0132866,  0.1161738, -0.1871823,  0.1515047,  0.2575538,
	-0.0373851, -0.1242778, -0.1071882, -0.0852549,  0.1102768, -0.1757995, -0.0946909, -0.0172351,  0.1592874,  0.0877512,
	-0.0645705,  0.0131247,  0.1078664,  0.2169324,  0.0489390,  0.0958835, -0.4188879,  0.2723520,  0.0654562, -0.0128590,
	 0.0250586, -0.0663783,  0.0046785, -0.1561556,  0.2129889, -0.1225963, -0.1512393,  0.1982564, -0.1379030, -0.2661169,
	-0.2128261,  0.0799463, -0.0186177,  0.0544251, -0.1199853, -0.0782503, -0.0985646,  0.2546710,  0.0554863, -0.2391212,
	-0.0467372, -0.1050070, -0.0809632,  0.0171968, -0.1723985, -0.2929525,  0.2058082,  0.0002562, -0.0132331,  0.0734314,
	-0.0630656,  0.0987137, -0.0515222, -0.2137930,  0.0680180,  0.0468817, -0.2196683,  0.2439049,  0.0274865,  0.1317382,
	-0.3113828, -0.0704277,  0.1280449,  0.1444341, -0.3022203, -0.2020690,  0.0243084,  0.2758979, -0.2035951, -0.1364902,
	-0.0564882, -0.3373389, -0.3063796, -0.3016727,  0.1396576,  0.0309240,  0.1357318, -0.3635581,  0.0573663,  0.2389122,
	-0.0693576,  0.2712255,  0.0399833, -0.0131444, -0.0259737,  0.1649697, -0.0498526, -0.1219601, -0.1695221, -0.2005079,
	 0.0709817,  0.1862264, -0.2366917, -0.0864826,  0.1694074,  0.0286940,  0.0333558, -0.1301486,  0.1226624, -0.0480009,
	 0.3107491, -0.1874830, -0.0344266, -0.1778024,  0.2487881, -0.0689775,  0.0179778,  0.1638111, -0.2158976, -0.1140239,
	-0.0907187, -0.1972766,  0.0130805,  0.0488914, -0.1311443,  0.0071669, -0.1920105,  0.0144588,  0.2445439, -0.0821731,
	-0.0606836,  0.2020654,  0.1666626,  0.0189377, -0.3319926, -0.1296729, -0.0605909,  0.2736576,  0.0085086, -0.1259871,
	-0.1101109, -0.0238880,  0.0554467,  0.1365360, -0.1104805, -0.0460343, -0.1554073, -0.0360100,  0.2823864,  0.1692294,
	-0.0173639, -0.2536038,  0.1173348, -0.0618816,  0.0271255,  0.1229350,  0.0973028, -0.1001291, -0.1526601,  0.1759631,
	-0.0321108, -0.1598842, -0.2551829, -0.1507440,  0.0369128, -0.0460693,  0.2130075, -0.2213362,  0.1041906,  0.0935160,
	-0.2875775, -0.1373066,  0.0246299, -0.1564735,  0.0483421,  0.2059930, -0.1606756, -0.1805364,  0.2863968,  0.1522673,
	 0.0126670,  0.0074163, -0.1040548, -0.1805274,  0.0395047, -0.0762377, -0.0419650, -0.0876972,  0.1309799,  0.1003417,
	-0.0536773, -0.1702017,  0.0739712, -0.0251831, -0.0141170, -0.0577981, -0.0958300,  0.0269930,  0.1679264,  0.1067155,
	 0.0833742,  0.0748573,  0.0987785, -0.0520549,  0.0584334,  0.0591058,  0.0795191,  0.0991329, -0.0888133, -0.1291602,
	-0.0424005,  0.0527911, -0.1768494, -0.0483333, -0.2999343,  0.0391078, -0.1387255,  0.1226040, -0.2253320, -0.1976002,
	-0.0043287, -0.0474700, -0.0123713, -0.1701348,  0.0751344,  0.1216653,  0.1019587,  0.2058736,  0.0930278, -0.1067473,
	 0.1025099, -0.0249594,  0.0731162, -0.1693378, -0.3330725,  0.0143558,  0.1005601,  0.1442082, -0.1554846, -0.0726686,
	-0.1024403,  0.0385773, -0.0908592, -0.0555719, -0.0677071, -0.2410171, -0.1287604,  0.0824788, -0.0032949, -0.1058711,
	 0.0669419,  0.2005434, -0.2645969,  0.0275428, -0.0974807,  0.0769124,  0.0208327,  0.1586625, -0.1381774, -0.1026494,
	 0.2120115,  0.0605838,  0.0869838, -0.0885924,  0.0750304, -0.1174733, -0.2323908, -0.1194199, -0.1017624,  0.0318924,
	-0.1165050,  0.2490726,  0.1478463,  0.1358993,  0.0653937, -0.2989559,  0.1985448, -0.0812705,  0.0434188, -0.0801160,
	 0.1234883, -0.2187603,  0.0220834,  0.0893987, -0.1328849, -0.0967246, -0.1053027,  0.0285201, -0.0355549,  0.0536525,
	 0.0371255, -0.1225661, -0.1161751, -0.2023670, -0.2996130,  0.3327308,  0.1331940, -0.0729997, -0.1513115, -0.0659560,
	 0.1299772, -0.2099015,  0.1123438,  0.0197324, -0.2445908,  0.0138384, -0.2605249,  0.2353456, -0.1473797,  0.0002128,
	-0.1303555, -0.1311634, -0.1889802,  0.1295312, -0.1317272,  0.0857426,  0.2925659, -0.1033558, -0.0292002,  0.1662851,
	-0.1555031, -0.1143652, -0.0124805,  0.3552889,  0.1869984, -0.1152955,  0.1193673,  0.0375364,  0.1404391, -0.0590524,
	 0.0665347, -0.1965606,  0.0950145, -0.0601919,  0.0997930,  0.1322769,  0.0456044,  0.0771930, -0.0865420,  0.0199618,
	 0.0664214,  0.0591614, -0.1927257,  0.0460831, -0.1634413,  0.2451732,  0.1733314,  0.0034816, -0.1367495,  0.0754695,
	-0.0845755, -0.3093834, -0.0779109,  0.0249665,  0.0765011, -0.1102450,  0.0950532, -0.1000144,  0.0820400, -0.1320316,
	 0.1132055, -0.0439829, -0.0710271, -0.2173720,  0.1396383,  0.1326983,  0.1375746,  0.1076693, -0.2957557, -0.1561817,
	 0.1053938, -0.0930043,  0.0068334,  0.0031784, -0.0222569,  0.1414630, -0.2542813,  0.3107038,  0.1235358,  0.1073795,
	-0.1408865, -0.0444791,  0.1216049, -0.1332447,  0.0502884,  0.1014908, -0.0849932, -0.1540077,  0.1968640,  0.1060614,
	-0.0496609,  0.1335533, -0.0421675, -0.0451795,  0.0423410, -0.1158679, -0.2094230, -0.0984772,  0.0133677,  0.1809358,
	 0.1828177, -0.0086417,  0.1784354, -0.0432304, -0.0346786, -0.2831795,  0.1171411,  0.1089228, -0.0021012, -0.0261647,
	-0.1554879,  0.1756093,  0.1035441,  0.1414644, -0.0905096,  0.1905131, -0.1593607, -0.1097148,  0.0678707, -0.2245205,
	 0.2324768, -0.1984112,  0.0216595,  0.1278524, -0.0456820, -0.0624687, -0.0386786,  0.0820150,  0.0786148,  0.0689643,
	-0.0375472,  0.1584378, -0.0047000, -0.0458121,  0.0771978, -0.5116898, -0.2465469,  0.0179097,  0.0839970, -0.2275106,
	 0.0787970, -0.2508046, -0.1907042, -0.0156340, -0.1225866,  0.1301498,  0.2204821, -0.1697928,  0.0914069, -0.0614833,
	-0.1875369, -0.3050874, -0.2394504,  0.0559895, -0.3326573,  0.2353082,  0.2336999, -0.0237379, -0.2108473, -0.2875549,
	 0.1391837, -0.1144110, -0.0339556, -0.0888163, -0.2277338,  0.1429867,  0.0405843,  0.1056107,  0.0336436,  0.0567460,
	-0.0441334, -0.0766318,  0.1936231,  0.0269098,  0.1007140,  0.1207541,  0.0325560, -0.0444750,  0.1397661, -0.1004081,
	-0.0403940, -0.1809731, -0.0792481,  0.0959915, -0.0072989, -0.2611697,  0.0318412, -0.1488581,  0.3120087, -0.0744308,
	 0.1892970, -0.0612416,  0.0057178, -0.0219179,  0.1123431,  0.1187166, -0.0434350, -0.0110110,  0.1170259, -0.1572047,
	-0.1202938, -0.0602928, -0.1312603, -0.0642274,  0.1811580, -0.0455408, -0.1239471,  0.1874284,  0.0089156, -0.1912277,
	 0.1386931, -0.1480675,  0.0859168,  0.1854779, -0.0625186, -0.1841289, -0.0659216, -0.0312965,  0.1672287,  0.0227919,
	 0.1751330,  0.0619053,  0.0402924,  0.0250175, -0.1132937, -0.2853426, -0.1564278, -0.1053350, -0.1498569, -0.0167028,
	-0.0657964, -0.1096524, -0.1800843, -0.0120671,  0.0923961,  0.1883120,  0.0611689, -0.0491800, -0.0868491, -0.0698762,
	 0.1467549,  0.0208826, -0.0582174, -0.2690755,  0.2647456,  0.0455768, -0.1628122,  0.0110875, -0.1227534,  0.0478320,
	-0.1273168,  0.0676126,  0.0029465, -0.0254691,  0.0981377,  0.1389750, -0.3079675,  0.1294695,  0.0836500,  0.0558105,
	 0.0392120,  0.0285644, -0.0871077,  0.0999791, -0.1279516, -0.1282252,  0.0480415, -0.1006720, -0.0892999,  0.1336852,
	 0.0913705,  0.2111228, -0.0067505,  0.1750357,  0.0164208,  0.0060208, -0.0642865,  0.0893991, -0.1027042, -0.1434483,
	 0.1652078, -0.2344777,  0.0263070, -0.2049558,  0.0818104, -0.1697627,  0.1887403,  0.0126478, -0.0412352, -0.0311102,
	 0.2659084, -0.0705778, -0.0169392,  0.0360353,  0.0292282, -0.0342990,  0.1279915,  0.0004349, -0.0161593, -0.0355802,
	 0.0826738, -0.0768755,  0.1071564, -0.1105320,  0.0082280, -0.1217885,  0.0178065,  0.1049969,  0.0660333, -0.3070338,
	-0.0303655, -0.0193202,  0.0031403, -0.0936657, -0.0103613,  0.0766621,  0.0565927,  0.1919409, -0.1273842, -0.0426183,
	 0.1157009, -0.3323246, -0.0836610, -0.1689294, -0.1918066, -0.0432398,  0.1544940, -0.1811174, -0.1182755,  0.1248692,
	-0.1370903, -0.0279750,  0.0424313,  0.1146003, -0.0805262,  0.2117979, -0.1386206, -0.1192819, -0.2807469, -0.0051078,
	 0.0205027, -0.3184056,  0.0814074, -0.1527384, -0.0729879, -0.3086221,  0.1019223, -0.0895994,  0.0375248, -0.0757873,
	-0.0577662, -0.0838243, -0.0542064, -0.0671968, -0.0164519,  0.1189913, -0.1885856, -0.2911177, -0.0367265,  0.0119665,
	-0.0899053, -0.2385560, -0.0420191,  0.1059940, -0.0572735,  0.0763265, -0.1447153, -0.0439028, -0.1918369, -0.0911554,
	-0.1304194,  0.0759695,  0.1402550,  0.1581551,  0.0616386,  0.1509894, -0.0814676, -0.0783673, -0.2250955,  0.0761954,
	-0.0815270, -0.1194090, -0.0938698, -0.1052181,  0.0898809, -0.0068353, -0.0216442, -0.0424792, -0.0650998, -0.0052199,
	-0.1767859,  0.1319340, -0.1993346, -0.3139952,  0.0665575, -0.0103221, -0.1569571, -0.0187127,  0.0571348, -0.0137808,
	 0.0454850, -0.3205355, -0.1501026, -0.0431042,  0.2077136,  0.0661911,  0.0411794, -0.2324620, -0.2974474,  0.1839866,
	-0.2193528, -0.1901154, -0.1127252,  0.1765055,  0.0549047,  0.0819037, -0.2901849,  0.0472871, -0.1152692,  0.1933058,
	 0.2113473, -0.0798852,  0.0568390, -0.0922407, -0.0243881, -0.0081792,  0.1145715, -0.3009167,  0.1551544,  0.0762770,
	-0.0474218,  0.2702510, -0.0889620,  0.1494942, -0.1953399,  0.0709281,  0.0832630,  0.0126432,  0.0089811, -0.0260836,
	-0.1075530, -0.0172105, -0.2933259, -0.3106018, -0.0061333, -0.0789852,  0.0463189,  0.1343670,  0.2351713,  0.0894577,
	 0.2007257,  0.1263493, -0.0467631, -0.1931941,  0.0220923, -0.1937614, -0.0033267,  0.2061964,  0.0690901, -0.1671001,
	-0.1839346, -0.1222238, -0.0784900,  0.2565442, -0.0690133,  0.1962485, -0.1548057, -0.0739279,  0.0405422,  0.1948954,
	-0.3271451, -0.0070516, -0.1629325,  0.1797332,  0.0718393,  0.1133006, -0.3142977, -0.0416710, -0.2690274,  0.1192783,
	 0.1068818,  0.0189875, -0.1224263, -0.0140193,  0.1850563, -0.0790788,  0.0772702, -0.0588571,  0.0634827,  0.1220916,
	-0.1544816, -0.2401898,  0.3268144, -0.0975293,  0.0543181, -0.0187026,  0.0823137, -0.0566789,  0.2437265, -0.1126013,
	 0.1803792,  0.0585288,  0.1045708, -0.3426658, -0.0930637, -0.2477280,  0.1835987, -0.0182450,  0.2983938, -0.1677174,
	 0.0136366, -0.1229872, -0.0618382, -0.1207810,  0.0343978, -0.0339395,  0.1513724, -0.1835930, -0.0930199, -0.0428936,
	 0.0038162,  0.0404357,  0.2663627, -0.2960887, -0.0132436, -0.1219836, -0.0653800,  0.0208758, -0.0821584, -0.0447397,
	 0.1285774,  0.0290723,  0.0670080,  0.0557248, -0.0709104, -0.1109555,  0.1386496, -0.1897963,  0.0553333, -0.1675989,
	 0.0340840,  0.2094506, -0.1005181,  0.0014416,  0.0730163,  0.0012836, -0.2733122,  0.1156013, -0.0716351,  0.1561624,
	-0.1550917,  0.1267972,  0.1631417, -0.1987750,  0.1589074,  0.0914438, -0.0045123, -0.1183962,  0.1844872,  0.1311592,
	-0.0045416, -0.0692838,  0.0492841, -0.2320186, -0.0937856,  0.0629023,  0.1276619, -0.3654298,  0.1602913,  0.0785105,
	-0.2566841,  0.0565467, -0.0179207,  0.0057685,  0.1269747,  0.0413639, -0.0669906,  0.1829728, -0.0103556, -0.2302015,
	-0.2611386,  0.3278640,  0.2226842, -0.1302334,  0.0208564, -0.0084695, -0.2064802,  0.0983125, -0.1643519,  0.0001593,
	 0.0542359,  0.1640843,  0.2427872, -0.1556344, -0.1379619, -0.0702816,  0.0043977, -0.1784156, -0.2655882, -0.2893713,
	-0.1053382,  0.0648421, -0.1906811,  0.0523104,  0.1081103,  0.0547325, -0.0616196, -0.1276603,  0.0251308, -0.0168228,
	 0.0218490,  0.0116622,  0.0121372,  0.0214755, -0.0999756,  0.0649774, -0.1823442,  0.1406776, -0.2548172,  0.0177264,
	-0.2112736, -0.1021272, -0.1484126,  0.3993085, -0.2333278,  0.1804259, -0.0381522, -0.2126193,  0.1177886, -0.0532020,
	 0.1579605,  0.0850129,  0.0568679, -0.0001101,  0.0487475, -0.0216194, -0.1062168,  0.2637494, -0.1548908, -0.1655448,
	-0.2206196, -0.1214970,  0.0460528, -0.0044080,  0.2357240, -0.0541178, -0.1258976, -0.1700719, -0.1174276,  0.1770870,
	 0.0067424, -0.0903933,  0.1663428,  0.0621141,  0.0758664,  0.0162410,  0.1010605, -0.0313983,  0.1358460, -0.1546109,
	-0.1144197, -0.1321941,  0.0830073, -0.0880983,  0.2121918, -0.2317907, -0.1153213,  0.0941245,  0.1215709,  0.0891241,
	-0.0641590,  0.0766903,  0.0067478,  0.0178407,  0.1599151, -0.1406417, -0.0104916, -0.0753812, -0.0123494, -0.0113995,
	-0.0455507,  0.1004698,  0.1210462, -0.0872930,  0.1203740, -0.2293786, -0.0148872, -0.0375267, -0.1079155,  0.1067992,
	-0.1372575, -0.0328840, -0.0535136,  0.1980850, -0.2366731,  0.0171710,  0.0577514, -0.3237953, -0.1062280, -0.0988937,
	 0.1200051,  0.0712917, -0.1510581, -0.0996569, -0.1549032,  0.0957788, -0.2026791, -0.0014744,  0.0770304, -0.2446182,
	-0.0200740, -0.1239790, -0.0385658, -0.1758121,  0.3238292, -0.2506377, -0.0558553,  0.0413770, -0.0702306,  0.1320062,
	-0.0964875,  0.1630252,  0.0750123, -0.1691865,  0.0229303, -0.1586949, -0.0126800,  0.2447918, -0.0553017, -0.2173402,
	 0.0243044, -0.2028985, -0.0217330, -0.0124297,  0.2147648,  0.0220388,  0.1082791,  0.1780765, -0.1014385, -0.1390423,
	-0.0514705, -0.0147044,  0.0025119,  0.1207686, -0.1231048,  0.0852779, -0.0551531,  0.0999282, -0.0956338,  0.1127851,
	 0.0765075,  0.2142387,  0.0891641,  0.0691639, -0.3020680,  0.1005267, -0.0414367, -0.0083590,  0.0977626, -0.0793888,
	 0.1048479, -0.0877973, -0.1276606,  0.0074871,  0.0087805,  0.0555121, -0.0802537, -0.1339234, -0.0379911, -0.0504543,
	 0.2121726, -0.2026149,  0.1645944, -0.2031305,  0.0925218,  0.0584272,  0.0535594,  0.0941480, -0.2162075, -0.0301837,
	 0.1253335, -0.0192428,  0.2507138,  0.0468904,  0.0338076,  0.1527702, -0.1191631, -0.3576408,  0.1413596, -0.2261603,
	-0.2259377, -0.0089997,  0.2576908, -0.1186670,  0.2063010, -0.0439839, -0.1429565, -0.0104338, -0.0224606, -0.1565583,
	 0.0444131, -0.1942353,  0.1229245,  0.0592556, -0.0222286, -0.0879282, -0.0829049,  0.1419474,  0.1183340, -0.2167095,
	-0.0566927, -0.0586568,  0.1613789,  0.0746534, -0.1288018,  0.0877873, -0.1928255, -0.0716053, -0.1161778, -0.0047856,
	 0.1147016, -0.0943429,  0.0398631,  0.0369227, -0.1410504, -0.0571170,  0.1163220,  0.0552631,  0.1390076, -0.1888880,
	-0.0839809, -0.1005456,  0.1558835, -0.1800136,  0.1784674, -0.1160515, -0.0053732,  0.1395480, -0.2642184, -0.2468397,
	 0.1777298, -0.2335652,  0.2232497, -0.1632636,  0.1264919, -0.3116297, -0.0113772, -0.0387333, -0.0408153,  0.0556575,
	-0.1838530,  0.0119261, -0.1357789,  0.0322973,  0.0102142,  0.1073734,  0.2206973,  0.1638321, -0.0868829, -0.3230678,
	-0.1926327,  0.1817183, -0.2303537,  0.0377355, -0.0674821,  0.0694649,  0.1139731,  0.0438638, -0.0065245, -0.0286365,
	-0.1043776,  0.0464605, -0.0500645,  0.0084616, -0.1442940,  0.0326793,  0.1753060, -0.0977343,  0.1280663,  0.0509864,
	 0.0614326,  0.1410877,  0.0651638, -0.3209720, -0.0021175, -0.2191686,  0.0121528,  0.0261420, -0.2777138,  0.1391664,
	-0.1099729,  0.1364852, -0.0516740,  0.0219475,  0.1472872,  0.1293903, -0.0304144, -0.2016810,  0.0301040,  0.0779752,
	 0.0217438,  0.0402383,  0.0320864,  0.2432852, -0.0941824,  0.0431360, -0.0871633,  0.0098979, -0.0229930, -0.0556399,
	-0.1118459,  0.1661574,  0.1418567, -0.0434405,  0.0050506,  0.0164518, -0.0239059,  0.0665271,  0.0171774, -0.0406549,
	-0.1146919,  0.0101050,  0.2161715,  0.1471621,  0.1035978,  0.1329997, -0.2085064, -0.0727049, -0.2306380, -0.0029131,
	-0.1325567, -0.1014766,  0.1388732, -0.1172697,  0.0156770,  0.1183463, -0.0639886,  0.1199876, -0.0756291, -0.0488795,
	 0.0712066,  0.1165747,  0.0926392,  0.0606977,  0.1450381, -0.1141347, -0.0267575, -0.0057665, -0.0842136,  0.0061787,
	-0.0396899,  0.1277307, -0.1160799, -0.1182364, -0.0933952, -0.0333899, -0.0280101, -0.0070742, -0.0066619,  0.1034719,
	 0.0460861,  0.0381600,  0.0261541,  0.0832919, -0.1988120, -0.1473517, -0.0664056,  0.1098702,  0.1592854, -0.0466350,
	-0.2181492,  0.1896496, -0.1119418,  0.1598014, -0.0669002,  0.1191390,  0.0450143,  0.1247972, -0.3044730,  0.1864630,
	-0.0203952,  0.0527521, -0.0047745, -0.1118200,  0.0482715, -0.1544880, -0.3185557,  0.1129895,  0.0150418, -0.0278378,
	-0.1558817, -0.0280202, -0.2710492,  0.1205350, -0.2341766,  0.0536395, -0.0932217,  0.0279683, -0.1050819,  0.1280983,
	-0.0474978,  0.2329185,  0.0669248,  0.0983114, -0.2927845,  0.0905937, -0.0561606, -0.0606147, -0.1368213,  0.0107130,
	 0.0179993,  0.0212518, -0.2275378,  0.1149625, -0.1274195,  0.0037025,  0.0466453,  0.0365684, -0.0764361,  0.1148047,
	 0.1862945,  0.0270031,  0.0147936,  0.0888753,  0.0167366, -0.0892319,  0.1317754,  0.0915328, -0.0572584,  0.2064445,
	 0.1352819,  0.1036531,  0.0660079,  0.0705110,  0.0210120, -0.1185498, -0.0827171, -0.1315468,  0.1526621, -0.0187050,
	 0.0077479, -0.2605239, -0.1275257,  0.1070384, -0.1570579,  0.0519417, -0.1393825, -0.4236631,  0.2134594, -0.1406669,
	 0.0207159,  0.1272089, -0.0224716,  0.0883706,  0.0236842,  0.1514549, -0.0405859, -0.2437858,  0.1167341, -0.0077035,
	 0.0153429,  0.2496709, -0.2296388, -0.1856506,  0.2173080, -0.2532007, -0.3293799,  0.0138720,  0.0621933,  0.1039825,
	 0.1128543, -0.0090364,  0.0507247, -0.0719168, -0.1002334, -0.1002633,  0.1271269, -0.1053235,  0.0361678, -0.1712249,
	 0.1036600, -0.2198781, -0.1991388,  0.1258605, -0.0878408,  0.1111633,  0.1076408, -0.0553379, -0.1496842,  0.1616095,
	-0.3153991,  0.0692913, -0.2703902, -0.1779304,  0.2074380, -0.1317386,  0.0038860,  0.2741590, -0.1797708,  0.2200014,
	 0.1139431, -0.1589931,  0.1295240, -0.0535524,  0.0341960,  0.1603407, -0.0598119, -0.1462778,  0.0198531, -0.0561672,
	 0.1227416,  0.0055641, -0.0971987,  0.0101448, -0.0327315,  0.0960378,  0.1605255, -0.1948471,  0.0090529, -0.0363131,
	-0.2035826, -0.0044398,  0.0724235,  0.0199004, -0.0981833, -0.0464879, -0.0292737,  0.1136107, -0.0035739,  0.0864553,
	 0.1447140, -0.1506733, -0.0903274, -0.0152188,  0.0760796, -0.0539750, -0.3465497,  0.0207443, -0.2342831,  0.2986863,
	-0.1297276,  0.0921021, -0.2275229, -0.0923130,  0.0964217,  0.0619579, -0.1922242,  0.1564536, -0.0811805,  0.2294142,
	 0.0968093, -0.0159026,  0.0338357,  0.1378232, -0.2886829,  0.0692579, -0.0485762, -0.0188969,  0.0898473, -0.0965145,
	 0.0544175,  0.0559838, -0.1010366,  0.0990913, -0.0258589,  0.1361576, -0.1834854,  0.1465458, -0.0611540,  0.0322723,
	-0.0028918, -0.0165844,  0.0817142,  0.1286198, -0.1821302,  0.1888256, -0.0049888, -0.0384409, -0.1516858, -0.0651897,
	-0.0121148, -0.0692840, -0.0684021,  0.0008526,  0.0246390, -0.1345281,  0.0865329,  0.0232772, -0.1450581, -0.1247868,
	 0.0859930,  0.1788636, -0.1813785,  0.1378285, -0.0320078,  0.1163667, -0.1075512, -0.0175404,  0.1246544,  0.0891302,
	 0.0344044, -0.0637081,  0.0638300, -0.0493432, -0.2799695, -0.1138997,  0.1609590, -0.1432312, -0.0064604, -0.1815098,
	 0.1342520,  0.0160968,  0.0836689, -0.1721200, -0.1145339, -0.0765699, -0.0061401, -0.0591470, -0.0378188, -0.0148801,
	-0.1317977, -0.0230162, -0.0654747,  0.0418630,  0.1904584, -0.0640201, -0.2470549,  0.1877760, -0.1546328,  0.2450510,
	-0.1537201,  0.1810772, -0.0299071, -0.0157143,  0.0770956, -0.0715658, -0.0722404, -0.0218292, -0.1206790,  0.0910421,
	 0.1508655,  0.0715711, -0.0739278,  0.0845564, -0.2744493, -0.0760248,  0.0290004, -0.0228081,  0.0712007, -0.0174275,
	-0.4130730,  0.0409439, -0.1673278,  0.0191266,  0.0221215, -0.1096186, -0.2005365,  0.1758528, -0.0008942,  0.0335020,
	-0.1869300,  0.1646267,  0.0981577, -0.1431103,  0.0757293, -0.0104745,  0.0667795, -0.0310246, -0.0789596, -0.0676792,
	 0.1876318,  0.0806029,  0.1891924,  0.0770855, -0.1524494, -0.1248112,  0.0186672, -0.2395660,  0.1459328, -0.0782794,
	-0.1498339, -0.1053880, -0.0006895,  0.0952251,  0.0544213,  0.1208766,  0.0391909,  0.1489471, -0.0107502,  0.0218571,
	 0.0381528, -0.0958733,  0.2197373,  0.1730141, -0.1063339,  0.0162798, -0.0792937, -0.0970989, -0.0204820,  0.0826191,
	 0.0238692, -0.4393408, -0.1630681,  0.1369374, -0.1829199,  0.1636127, -0.1053191, -0.1992193,  0.1623634, -0.0529863,
	-0.2145502, -0.0108789,  0.0792718, -0.1690702,  0.0916226, -0.0393042, -0.2144734,  0.0146140,  0.1466361,  0.1581035,
	 0.1375029,  0.0990465, -0.1469437,  0.2360070, -0.0107620,  0.1261738, -0.0505163,  0.1294342, -0.0633799,  0.0487527,
	 0.0152501,  0.0162331, -0.0134770, -0.0405898, -0.0680736, -0.0066986, -0.0449088,  0.0792241,  0.0933715, -0.1343595,
	-0.2467448,  0.1170243, -0.0449508, -0.1539862,  0.2062096, -0.0118396,  0.0308204, -0.0109408, -0.1155472,  0.1418280,
	-0.0290972,  0.1603765, -0.1378464,  0.1401123,  0.0729330,  0.0314112,  0.0154246,  0.0786691, -0.0997776, -0.1321966,
	 0.0262243,  0.0154625,  0.0198042, -0.1334235, -0.0858033,  0.0035791, -0.0834831,  0.0101342,  0.1922930, -0.0214047,
	-0.0857361,  0.0854435,  0.0344491, -0.0902743, -0.0014909,  0.0559802,  0.0922418, -0.0931846, -0.0575682,  0.1200225,
	-0.2126399,  0.1905311, -0.0460897,  0.1328099,  0.1691393,  0.0417012,  0.0112039,  0.0785379,  0.0414775,  0.0652224,
	 0.0521112, -0.0477847, -0.0097826,  0.0904995, -0.0984880,  0.0012289, -0.0549244,  0.0726010,  0.0864587,  0.0975075,
	-0.3224438,  0.0891235, -0.1329758, -0.1950246, -0.0760405, -0.2038762, -0.0910515, -0.1416119, -0.0268896,  0.1655939,
	-0.2066313, -0.0141105, -0.0727480,  0.0820645, -0.1314067,  0.1408141, -0.1764569,  0.0294518, -0.0953762, -0.0455463,
	-0.1472316,  0.0289388,  0.3063059, -0.1433010,  0.1732859, -0.2532799, -0.1841976,  0.0579750, -0.0730015,  0.0912928,
	-0.0157606,  0.1650318,  0.2752111, -0.1370354,  0.1687139, -0.1830122, -0.1567861,  0.0502281, -0.0247819, -0.1144917,
	-0.0147712,  0.0817817,  0.0377452, -0.1374172,  0.0258635, -0.1972002, -0.0670329, -0.1444040, -0.0237743,  0.2002434,
	 0.2305398, -0.2788239, -0.0751544,  0.1576738, -0.0136823, -0.0125910,  0.3038739,  0.1411530,  0.1064436, -0.0284590,
	-0.1467426,  0.1198404, -0.1412318,  0.1338665, -0.0729870, -0.0541387, -0.0320587, -0.2088579,  0.2115121,  0.0487503,
	-0.2366542,  0.0163144,  0.1865442, -0.0526785,  0.1131043, -0.1014220, -0.1310079, -0.0591790,  0.1230836,  0.2211498,
	 0.1644080, -0.0765047,  0.1742056, -0.0880049, -0.0218865, -0.0500471, -0.0012811,  0.0038657, -0.1765728, -0.1035805,
	-0.1817925,  0.3361146,  0.2891099,  0.0083656,  0.0614552, -0.1733386, -0.2199495, -0.1636831,  0.0805282,  0.0458749,
	-0.0840257, -0.0991167,  0.0654997,  0.0335435,  0.0378345, -0.1005886, -0.1016048,  0.0943256, -0.0073588, -0.1134884,
	 0.1321376,  0.0029904,  0.0617702,  0.0388575, -0.1154599,  0.0026061,  0.0853985, -0.0733251, -0.0305078, -0.0490388,
	-0.0918003, -0.0523415, -0.0348652, -0.1059441, -0.0618608, -0.0339577,  0.0892158, -0.1262177,  0.0430014,  0.0512259
};

const float biases[10] = {
	 0.0428038,  0.0822849, -0.0157023,  0.0182663, -0.0657247, -0.0044791,  0.0013172,  0.0079556, -0.0171553, -0.0114139
};